34 128
34 0.04873338 -0.15885112 -0.24579145 -0.14659388 -0.047782395 -0.006045701 0.13583766 0.042221345 -0.007993529 0.09817865 -0.099836394 -0.03169097 -0.030108705 -0.14731179 0.053274013 0.06028729 -0.024636695 -0.14034559 0.30320233 0.257619 -0.17592743 -0.10282826 -0.18261644 -0.14697258 0.027142879 0.027970662 0.05732067 -0.031763244 0.03576139 0.23853375 -0.013214877 -0.13022284 -0.21809748 0.059298806 -0.05693537 -0.105947025 0.14085285 0.11253198 0.021675093 0.042445865 -0.09906762 0.17376228 -0.06981439 0.14792112 -0.12481273 0.2464249 0.21302998 0.057494186 0.03911227 -0.27456966 -0.07934189 -0.1582006 0.11395436 -0.0024619754 -0.11636319 0.15752016 -0.27815968 0.14560823 0.061845552 0.00019546591 -0.025920276 0.0337415 -0.13018316 0.18263586 0.032189578 0.075832255 -0.06921757 0.08086202 -0.11008822 -0.16222669 -0.15268302 0.101244494 0.025002217 -0.13817333 -0.19628735 0.04378731 -0.23664455 0.18779513 -0.026581515 0.10524769 0.22454037 -0.02316722 -0.030193238 0.15680924 -0.20536216 0.16256447 -0.051277928 -0.012579854 0.063034624 -0.0770581 0.030149987 -0.12546112 0.100456595 -0.15831879 -0.07441582 0.12303304 -0.102312505 0.050870113 0.17029002 0.14220683 0.29006886 0.06318679 0.061711404 0.097862236 0.15228796 -0.0365149 0.16265123 -0.09399852 0.022728864 -0.32024226 0.053333182 0.08458989 0.055998165 -0.1296992 0.009149742 -0.059258625 0.07531652 0.021625945 -0.017505517 0.18621168 0.025650555 0.020364434 -0.048732832 -0.07797513 -0.25064358 -0.16708936 -0.080235064 0.07094815
1 -0.0054820944 0.044143274 -0.19091511 -0.09281969 -0.26261902 -0.108595565 -0.0060412176 0.047873277 0.035732016 0.05518164 0.07434883 -0.13539584 -0.050724965 0.1476711 0.118055865 0.04154678 -0.09930251 -0.055881523 0.06332802 -0.03390252 -0.2018427 0.063670024 -0.100686945 -0.017469615 -0.1715858 -0.039540563 0.184042 0.017374057 0.035251755 0.08309719 -0.111296885 -0.25163618 -0.18655524 -0.06385054 0.042785864 0.037853085 0.02295094 0.044002935 0.056036357 -0.041229345 0.040938586 0.16965082 -0.11452211 0.077115275 -0.10073236 0.12351241 -0.025172284 0.1790183 0.10934228 -0.1350806 -0.04434803 -0.13112414 0.08558302 0.047048807 0.028374538 0.047798373 0.00823578 0.09500579 0.27989554 0.11754303 -0.002432568 -0.16132681 -0.09768106 -0.15655033 0.12726495 -0.0076444647 0.03807201 0.0038374108 -0.099219136 -0.07254637 -0.10908626 0.1161521 -0.058501724 -0.037096377 -0.121680066 -0.05543392 -0.16803363 0.09281895 0.023262141 0.042549103 0.0843991 0.09454659 0.10132932 0.17972036 -0.106280245 0.27210262 -0.1686948 -0.090326466 -0.08024352 -0.1411334 0.27339154 -0.19695343 0.1354414 -0.18290928 0.03696827 -0.06562259 0.046959974 -0.09182858 0.22490998 0.10857592 0.27578968 -0.14988442 -0.040728174 0.013817654 0.07388467 -0.020586431 0.021575352 -0.09605625 -0.049607944 -0.15648031 -0.0017566324 0.11090988 -0.023901545 -0.24385776 0.06230174 -0.097469054 0.10241223 0.022864988 -0.014334706 -0.022095881 0.06023738 -0.10102337 0.015717626 -0.022841798 -0.13578553 -0.042665046 -0.07486151 -0.08369106
33 0.035522707 -0.08548431 -0.2068823 -0.11893644 -0.103932545 -0.039775223 0.08786085 0.04035472 0.0006251818 0.07485833 -0.03748886 -0.06572534 -0.028516661 -0.04535428 0.06708092 0.049694475 -0.05034224 -0.10319639 0.21277472 0.15425704 -0.17324084 -0.047395453 -0.14201087 -0.09472717 -0.035194658 0.0016381671 0.089699395 -0.020441819 0.031525027 0.17796859 -0.041438546 -0.15508349 -0.19518138 0.01971434 -0.027717968 -0.062069703 0.09973418 0.08544871 0.031998873 0.009537405 -0.048930492 0.15648355 -0.07512062 0.11677969 -0.10575899 0.18852897 0.12342672 0.08608634 0.059264176 -0.21173273 -0.06302713 -0.14060088 0.096018024 0.017171448 -0.06650326 0.11402215 -0.17420787 0.11261201 0.11418549 0.03180194 -0.021292033 -0.0166414 -0.10814358 0.07324406 0.058661576 0.043845173 -0.028546121 0.05293021 -0.095495194 -0.122751996 -0.1271684 0.10113074 -0.006308913 -0.09894381 -0.15884632 0.009128673 -0.19705237 0.1404438 -0.010349336 0.082479306 0.16484731 0.0060199155 0.012898426 0.15296203 -0.15431619 0.1765051 -0.08386288 -0.03147855 0.02391065 -0.08827756 0.09637766 -0.13526146 0.099452026 -0.15077409 -0.038019083 0.053287044 -0.050410435 0.002532854 0.16743289 0.11934052 0.25393984 -0.00015598466 0.030812882 0.06483335 0.11164336 -0.030539123 0.104054086 -0.085107714 -0.0032208445 -0.24814463 0.033485062 0.08279119 0.025788542 -0.14419861 0.027504671 -0.060528588 0.073501356 0.020235138 -0.01732893 0.10632158 0.028131338 -0.019826056 -0.020712813 -0.05311567 -0.19564502 -0.113030426 -0.07218143 0.020366764
3 0.025889004 -0.07502098 -0.22410035 -0.122307025 -0.13957168 -0.046330858 0.07430255 0.042667832 0.007937676 0.077318504 -0.029921342 -0.06843675 -0.041915674 -0.025205947 0.08469222 0.050356094 -0.056441277 -0.10296017 0.20492733 0.13023019 -0.18641591 -0.030839136 -0.15266651 -0.09000291 -0.056482293 -0.0006336636 0.11230188 -0.010979205 0.033422634 0.17414139 -0.05205558 -0.18186794 -0.2011262 0.005256253 -0.015647274 -0.04860026 0.0905051 0.08450306 0.031136112 0.0046472647 -0.03684084 0.1682452 -0.084530376 0.11958578 -0.115707174 0.19628581 0.11687307 0.10641565 0.06398681 -0.21573517 -0.05958409 -0.1471292 0.101897 0.012183586 -0.060167335 0.11685742 -0.16123396 0.12015633 0.14973707 0.045358654 -0.016828256 -0.04890147 -0.11133074 0.04212212 0.07577684 0.03777767 -0.01995752 0.04585962 -0.10902586 -0.1283027 -0.13323674 0.10911655 -0.011971442 -0.09707772 -0.15868679 0.0030516642 -0.2105021 0.14801134 -0.0109692775 0.078117594 0.16639964 0.03091659 0.022064395 0.16296075 -0.16670682 0.20894721 -0.09894667 -0.04755079 0.00036902897 -0.09945849 0.13192172 -0.14950989 0.116957396 -0.16678175 -0.02793539 0.04574412 -0.03457382 -0.013096465 0.1908807 0.12927713 0.2869095 -0.030122219 0.015980205 0.061762787 0.11571501 -0.028934231 0.10543399 -0.093116686 -0.008229552 -0.24468808 0.027991982 0.08918863 0.024128096 -0.17491592 0.03549685 -0.07183653 0.08698766 0.02501441 -0.016569983 0.096418306 0.045662582 -0.028476557 -0.026670078 -0.056434736 -0.2022414 -0.11394853 -0.07804437 0.0059324503
2 0.006422972 -0.0021185987 -0.19555613 -0.09998467 -0.20892139 -0.078445375 0.026459659 0.045303453 0.026547685 0.063394964 0.023121394 -0.10591531 -0.043042276 0.06842866 0.10235304 0.045342457 -0.079901546 -0.078082785 0.1121053 0.033258017 -0.18426776 0.026035648 -0.1223895 -0.042245362 -0.12340469 -0.023928465 0.14966832 0.005048268 0.030961255 0.11909961 -0.080580294 -0.20910199 -0.18659806 -0.02855743 0.023230376 0.0028442396 0.05438148 0.059335463 0.040326364 -0.01380235 0.0143876495 0.1565702 -0.101420194 0.08496265 -0.10113365 0.14539824 0.029779013 0.14568831 0.08701684 -0.1561703 -0.0509057 -0.13014074 0.08989109 0.027130997 -0.012109537 0.07606067 -0.06736995 0.10068679 0.22106728 0.08782471 -0.013649371 -0.1135536 -0.09960218 -0.07030489 0.10656198 0.0139692575 0.009819324 0.01619985 -0.09696802 -0.098019496 -0.11016687 0.11056083 -0.04209758 -0.060320854 -0.1343841 -0.031308744 -0.18252008 0.10962365 0.008818092 0.056468 0.11185787 0.06783662 0.06359386 0.16185126 -0.12718952 0.23459086 -0.13140762 -0.06577143 -0.04051909 -0.12161156 0.20429653 -0.1702623 0.12930149 -0.16436896 0.0092781745 -0.01479472 0.013194312 -0.055227954 0.19762868 0.117776506 0.2761155 -0.097651936 -0.017772567 0.027165486 0.08997347 -0.027687808 0.052995723 -0.08507607 -0.032049138 -0.18365905 0.013155796 0.09821926 0.0026832349 -0.21467721 0.046057474 -0.0858459 0.09460285 0.022332001 -0.010050261 0.027114958 0.059834804 -0.066200376 -0.009566189 -0.03490403 -0.1528448 -0.076467305 -0.0665008 -0.041049436
32 0.029645719 -0.07723131 -0.22109237 -0.11861295 -0.1312699 -0.04557816 0.07926142 0.043556035 0.011993863 0.079174206 -0.027227072 -0.074250646 -0.03847815 -0.030955857 0.07884355 0.053808797 -0.05458825 -0.103706785 0.20892686 0.13621089 -0.18296443 -0.033744622 -0.15011688 -0.09768721 -0.058438454 -0.0029894249 0.10377448 -0.016100762 0.03526477 0.17308281 -0.05056398 -0.17318134 -0.20424852 0.010348445 -0.019094232 -0.052752096 0.09182586 0.08290946 0.038340203 0.005896881 -0.04127475 0.16910611 -0.086352386 0.11400221 -0.112761945 0.19399615 0.11676918 0.10116976 0.06976076 -0.22112219 -0.06482685 -0.14692128 0.10554288 0.015682705 -0.05755257 0.11162321 -0.16135162 0.12288159 0.14365424 0.041379172 -0.017388731 -0.03984193 -0.112350576 0.047126625 0.06890165 0.03988253 -0.025239175 0.05093962 -0.10481384 -0.12535626 -0.1302065 0.10446891 -0.010057541 -0.098939106 -0.16671817 0.0074776504 -0.2061231 0.1460935 -0.010499051 0.074807376 0.16563831 0.020072654 0.026564255 0.1647633 -0.16307864 0.20151009 -0.099117786 -0.0453851 0.008094533 -0.09656714 0.12699494 -0.14922032 0.113090776 -0.1653864 -0.02800861 0.04327191 -0.042184297 -0.0081444215 0.18834671 0.12399251 0.2756747 -0.019596875 0.02370911 0.063295804 0.120751016 -0.02882758 0.10519524 -0.09295011 -0.00885936 -0.25502563 0.035821207 0.089949526 0.024647903 -0.1692895 0.028794408 -0.07245664 0.08107585 0.02137853 -0.017697137 0.10423484 0.039466094 -0.034952454 -0.021166349 -0.059077464 -0.20351645 -0.109754845 -0.07493543 0.0039420705
4 0.006340166 0.0027503148 -0.20120311 -0.103536524 -0.2189345 -0.0865365 0.023457056 0.049766824 0.026825655 0.067161776 0.03644095 -0.11795692 -0.046897344 0.08324924 0.106581524 0.040942892 -0.082151175 -0.07238127 0.11227591 0.02275312 -0.1932737 0.030708333 -0.116133995 -0.04480409 -0.13149858 -0.030068325 0.15520681 0.0063603693 0.033285234 0.11267116 -0.08588091 -0.22282135 -0.19345857 -0.034244675 0.02465204 0.007188245 0.05176464 0.06040821 0.0479744 -0.023130933 0.014942146 0.16589212 -0.10107429 0.08351116 -0.10189681 0.14114554 0.02452891 0.14996894 0.09282018 -0.15568052 -0.051363707 -0.13433032 0.09060421 0.038564 -0.002204614 0.07053719 -0.052384302 0.10587267 0.2328995 0.08624517 -0.008285378 -0.11795435 -0.103100084 -0.087927856 0.106681675 0.0057517593 0.009685029 0.017631406 -0.098753355 -0.091566086 -0.11100287 0.107612655 -0.042521562 -0.05546256 -0.13245691 -0.031666894 -0.17707922 0.10506497 0.009137524 0.053130664 0.11200563 0.070485346 0.07193555 0.16935031 -0.120425165 0.24079187 -0.14211884 -0.06982124 -0.04437486 -0.122569025 0.21700607 -0.17553046 0.123092204 -0.17279775 0.016988268 -0.02914575 0.015549593 -0.062810756 0.20243365 0.11597168 0.2740585 -0.1100524 -0.02115642 0.034410067 0.08432327 -0.027318874 0.046822216 -0.091355294 -0.038065646 -0.17615137 0.01043924 0.10314118 -0.0028487046 -0.21534772 0.048481215 -0.09104688 0.09389707 0.017866738 -0.012903848 0.019591378 0.05447446 -0.06804699 0.00043375324 -0.034228254 -0.14972267 -0.07351378 -0.06778663 -0.048870828
24 0.040643223 -0.10825317 -0.22453716 -0.13106295 -0.090106554 -0.033379827 0.10257672 0.04782277 0.0015167844 0.08107316 -0.04639462 -0.05532274 -0.033596493 -0.07678742 0.06883859 0.05867482 -0.046117146 -0.11459473 0.24693085 0.18327329 -0.18288717 -0.053766344 -0.1605725 -0.114505224 -0.029186957 0.011745308 0.07906383 -0.02744085 0.03523636 0.19754417 -0.03560868 -0.1573423 -0.20472988 0.028254759 -0.038296305 -0.06781675 0.10513605 0.08869505 0.03258006 0.013404185 -0.06187435 0.17314273 -0.08547669 0.12375025 -0.119384326 0.2107652 0.15144244 0.079698175 0.06143444 -0.24323024 -0.06925605 -0.15024488 0.111606546 0.013063677 -0.07552499 0.13016453 -0.19994313 0.13032295 0.10371185 0.025981871 -0.02010607 -0.0056938585 -0.11406849 0.10580848 0.05461004 0.048071794 -0.033917975 0.06884557 -0.10813638 -0.14023356 -0.13973206 0.1028306 -0.001753726 -0.114204645 -0.18442479 0.019514333 -0.21618558 0.16305897 -0.020449936 0.087042265 0.18447404 -0.0004648394 0.0087725455 0.16481514 -0.17621593 0.19104542 -0.083185166 -0.027773876 0.03259927 -0.08917732 0.09171675 -0.1407567 0.10642489 -0.15977351 -0.041703332 0.06518099 -0.06473177 0.020490745 0.18097873 0.1274289 0.2802108 0.01751008 0.038958754 0.07360576 0.13544378 -0.030802766 0.12181967 -0.0977595 0.002354792 -0.28232846 0.044767573 0.088102594 0.034312394 -0.15252565 0.02175246 -0.060920306 0.0827418 0.022041298 -0.016567959 0.1319953 0.0326275 -0.020566825 -0.030766612 -0.07112089 -0.21888775 -0.12666182 -0.073932484 0.025899665
14 0.008785756 0.003146576 -0.19489387 -0.09922861 -0.2151148 -0.087543026 0.026519366 0.042440705 0.027124798 0.058966607 0.03202594 -0.10813537 -0.043443397 0.07946327 0.10348011 0.042999767 -0.08342026 -0.072853275 0.11677703 0.029934457 -0.19209312 0.022891186 -0.12264708 -0.049707714 -0.13212658 -0.027515637 0.15486887 0.0025803456 0.030019434 0.118163474 -0.08618072 -0.22280215 -0.19209284 -0.03599865 0.02255078 0.0011782441 0.05408669 0.05468033 0.047102705 -0.023203531 0.016845938 0.16818343 -0.10634546 0.08827868 -0.10446435 0.14727424 0.024253992 0.15220179 0.08898679 -0.16166331 -0.049609516 -0.13776563 0.08610584 0.0400508 -0.0033750797 0.067258604 -0.062281206 0.10463721 0.22921097 0.09192957 -0.010157447 -0.11707347 -0.10449717 -0.078718655 0.10483036 0.013798159 0.013028019 0.020459177 -0.10090854 -0.092564 -0.11753687 0.112515666 -0.046387665 -0.058637455 -0.14006518 -0.03583787 -0.18165182 0.11304471 0.0070859077 0.057323776 0.11464996 0.07212799 0.07096883 0.16886626 -0.12751998 0.24691251 -0.13885 -0.07455696 -0.049259134 -0.12462179 0.21708865 -0.17638464 0.13231558 -0.17306639 0.019596046 -0.022198394 0.020227967 -0.061020397 0.20961206 0.120055445 0.28243613 -0.10202966 -0.024979267 0.029993815 0.093784094 -0.025950152 0.051863905 -0.09135913 -0.033714216 -0.18879955 0.00777043 0.10653674 -0.0016161802 -0.22241199 0.049205534 -0.08819486 0.09631562 0.02143002 -0.011514094 0.022095116 0.055324603 -0.07014647 -0.0036436545 -0.035233743 -0.15998787 -0.075337306 -0.069294855 -0.05044419
28 0.032503724 -0.09586573 -0.2310721 -0.12661685 -0.11334382 -0.04189451 0.0917851 0.042981442 0.009388157 0.08648488 -0.03701306 -0.0659972 -0.036138408 -0.055136375 0.0747721 0.05559978 -0.051393677 -0.114175744 0.23275638 0.16102214 -0.18539242 -0.04752122 -0.15830441 -0.10788003 -0.04116137 0.0010893126 0.09752642 -0.015874023 0.03600784 0.19216233 -0.04516457 -0.1706133 -0.21179749 0.018286346 -0.025953347 -0.06370306 0.10647896 0.08835101 0.031113971 0.011983031 -0.047712155 0.1729733 -0.089670464 0.12526335 -0.11685991 0.20794365 0.13441126 0.0929334 0.063094296 -0.23443103 -0.06572108 -0.15351929 0.108003244 0.014383826 -0.07039004 0.12565564 -0.18605477 0.13110422 0.12664263 0.033922624 -0.016304307 -0.029523248 -0.11931257 0.07765034 0.061283424 0.0493867 -0.03362989 0.06187373 -0.1077944 -0.1355675 -0.13793924 0.106140636 -0.001569434 -0.10654004 -0.17705481 0.014263013 -0.21653663 0.15776503 -0.014872329 0.08713321 0.18081833 0.013840149 0.014438851 0.16799493 -0.16836528 0.1935876 -0.09229601 -0.036114443 0.021647818 -0.09750963 0.10705237 -0.14608039 0.116377935 -0.16662896 -0.03466416 0.062299386 -0.052602593 0.0030389563 0.18257025 0.13423872 0.28758627 -0.004345375 0.029017456 0.071336724 0.12773773 -0.035219975 0.11462452 -0.09457132 0.0011000222 -0.27008918 0.04108682 0.08728764 0.026812347 -0.16712897 0.025300406 -0.06936864 0.080236174 0.022719137 -0.015992494 0.1207241 0.034357164 -0.01897217 -0.025870414 -0.06449896 -0.20971867 -0.12403317 -0.08082523 0.018049737
8 0.0048929146 0.013543265 -0.19685605 -0.0994837 -0.22879483 -0.095039405 0.015413977 0.04191473 0.030073682 0.06411024 0.045563664 -0.11345635 -0.04445037 0.09919362 0.108799614 0.045456424 -0.08894707 -0.07337952 0.10234814 0.015267948 -0.19141872 0.03135673 -0.11706103 -0.034267668 -0.14181893 -0.032895908 0.1625539 0.011789332 0.03512135 0.10900962 -0.09244809 -0.23199975 -0.19292578 -0.0416033 0.030009393 0.011425801 0.045235563 0.05378014 0.05249606 -0.024466073 0.022874227 0.16679904 -0.105434 0.088019185 -0.10419983 0.14315815 0.017840635 0.15688282 0.09082718 -0.15197772 -0.046644457 -0.13019843 0.08701474 0.03469706 0.0053335503 0.0670984 -0.04184253 0.10126194 0.24364296 0.0964251 -0.009122295 -0.1283934 -0.095730335 -0.100397676 0.11299272 0.005984687 0.020489885 0.01379782 -0.09712642 -0.09050526 -0.11550467 0.11321762 -0.043342322 -0.051783524 -0.12787816 -0.036811177 -0.1789508 0.10855967 0.013438974 0.05045737 0.10332266 0.079321206 0.08019717 0.16882424 -0.11592767 0.24873726 -0.14152037 -0.082059786 -0.059433915 -0.12465181 0.23055863 -0.18221697 0.13201272 -0.16969594 0.018205838 -0.035772763 0.024108533 -0.06545854 0.20813529 0.115601785 0.27996486 -0.116020724 -0.029300995 0.026146216 0.08204947 -0.022168959 0.04014367 -0.09553776 -0.038877957 -0.17695291 0.008294661 0.10162928 -0.007987538 -0.22566675 0.04885071 -0.09049454 0.093926184 0.023176013 -0.009890075 0.012582997 0.06020678 -0.07908169 0.002210306 -0.033324473 -0.14972985 -0.06906442 -0.07397522 -0.060098257
30 0.039037738 -0.11036386 -0.23479044 -0.12950926 -0.1057691 -0.029653125 0.10307067 0.048139744 0.005694502 0.08135597 -0.04924589 -0.056463614 -0.03290362 -0.064039685 0.07389484 0.052252818 -0.049597662 -0.114294216 0.24255988 0.18048064 -0.18211097 -0.057252888 -0.16649844 -0.11152261 -0.031404477 0.0059189945 0.08699314 -0.02076149 0.037313666 0.1971886 -0.03553012 -0.16071865 -0.2125457 0.021757498 -0.03184252 -0.065357916 0.1093216 0.09363672 0.027645983 0.015459167 -0.059182968 0.17449778 -0.08343269 0.12435149 -0.118145816 0.2119974 0.14838971 0.08798654 0.057690907 -0.23901473 -0.06362006 -0.14974877 0.10541854 0.013412787 -0.0813821 0.13113214 -0.19959013 0.1303065 0.11659437 0.031029206 -0.021561204 -0.014750635 -0.11498483 0.099118896 0.058753744 0.053526357 -0.032711223 0.06490685 -0.105044045 -0.13788912 -0.14235638 0.10162565 -0.001563359 -0.11010526 -0.1755835 0.015093207 -0.2146217 0.15995306 -0.016781278 0.08698103 0.18789014 0.003157686 0.01142375 0.16638951 -0.1778081 0.19258818 -0.07961838 -0.02936228 0.027246254 -0.09501163 0.09281108 -0.14541194 0.112790875 -0.16200079 -0.038746987 0.06648077 -0.060709897 0.017635131 0.18432721 0.13521707 0.284836 0.0047094887 0.03646335 0.076825604 0.13151617 -0.03103987 0.119018726 -0.09414792 0.0022910424 -0.27799335 0.04446633 0.08432115 0.029510334 -0.15414762 0.019758215 -0.06564749 0.07850783 0.021008309 -0.01968388 0.13213491 0.034018073 -0.013971931 -0.029507246 -0.0658921 -0.21330298 -0.1322644 -0.07342736 0.027954146
9 0.020535247 -0.04869975 -0.20687617 -0.11389522 -0.16454417 -0.06470419 0.06439336 0.045561124 0.022018695 0.07428855 -0.004788767 -0.08758522 -0.042218618 0.008985739 0.08602428 0.04327289 -0.06297935 -0.09653394 0.17097223 0.091918856 -0.18188423 -0.014995283 -0.13496761 -0.072422944 -0.0839444 -0.007990929 0.12155487 -0.004759218 0.03368491 0.15227723 -0.0681029 -0.18945417 -0.19792503 -0.011014027 0.00020239019 -0.031354148 0.075031586 0.07651865 0.040825773 -0.0031106395 -0.022160955 0.16899313 -0.098105416 0.103389576 -0.106624916 0.17231536 0.081171915 0.11833547 0.07821431 -0.19028851 -0.050452676 -0.13894276 0.09574682 0.026771188 -0.03614643 0.0914768 -0.12266499 0.1138772 0.17263946 0.060622033 -0.015380842 -0.06795133 -0.10760256 0.004715414 0.07913212 0.028397849 -0.011740077 0.042136807 -0.09480134 -0.109293535 -0.12515803 0.10548926 -0.021702038 -0.08206515 -0.15460834 -0.0054243165 -0.18476418 0.1278708 -0.00015734443 0.0674207 0.14319564 0.04147335 0.038634043 0.16906287 -0.14450613 0.21202646 -0.115685195 -0.05735663 -0.006764597 -0.11051796 0.1602612 -0.1583154 0.114483096 -0.16320206 -0.0074456558 0.020929165 -0.021076985 -0.028405631 0.18703733 0.12410064 0.27599075 -0.045862414 0.0006012279 0.051473506 0.10414124 -0.027520742 0.07678169 -0.09183836 -0.019873828 -0.22205871 0.025088133 0.09814146 0.013281072 -0.18505548 0.036036726 -0.07499484 0.08968147 0.02558348 -0.00847995 0.062248785 0.047757078 -0.047047116 -0.016699944 -0.048782114 -0.17740242 -0.100248374 -0.075646564 -0.013234361
6 -0.011076687 0.09783579 -0.202345 -0.08809726 -0.3506242 -0.16395111 -0.01923621 0.07566725 0.06687332 0.051288348 0.14059162 -0.1901723 -0.04998543 0.23126662 0.14622453 0.035070483 -0.12926999 -0.05052251 0.031478565 -0.10330392 -0.23783784 0.09642212 -0.09446254 0.005388045 -0.25608054 -0.061351802 0.2261954 0.0061002066 0.041994806 0.060100302 -0.16157146 -0.31660634 -0.21012107 -0.10791444 0.07372321 0.08468018 0.00075899734 0.026896376 0.082294695 -0.077442296 0.07415473 0.20489039 -0.16734533 0.074670546 -0.10206234 0.115329124 -0.089880496 0.2374279 0.16268189 -0.14126761 -0.035588007 -0.15214764 0.092449486 0.09402741 0.08173814 0.01889048 0.07398179 0.092806995 0.36590844 0.16930649 0.014884718 -0.2198934 -0.10570895 -0.23462372 0.15703383 -0.02816562 0.07481934 0.0011455272 -0.1013818 -0.0544622 -0.10960248 0.14699012 -0.10311927 -0.02188504 -0.15235022 -0.086947896 -0.16575432 0.088260904 0.045293804 0.023998575 0.063084915 0.12182213 0.16112517 0.23991303 -0.08879721 0.35059628 -0.23550572 -0.13070084 -0.120978534 -0.1860439 0.37336951 -0.24589694 0.16206148 -0.22310719 0.08410601 -0.13539053 0.0869634 -0.122657254 0.28240445 0.117278874 0.32288972 -0.20385703 -0.06815599 0.0058508795 0.080525145 -0.020086419 -0.025372915 -0.13672352 -0.081781395 -0.16492975 -0.0041543893 0.13822775 -0.05360071 -0.30596438 0.083544366 -0.109299 0.13328874 0.025782086 -0.01135435 -0.08580748 0.07649067 -0.1567162 0.03886135 -0.021974923 -0.13767016 -0.011824758 -0.09565009 -0.13534924
7 -0.011459876 0.09077013 -0.19141671 -0.07869292 -0.3410434 -0.15747832 -0.010743563 0.07225765 0.067648225 0.053376913 0.137935 -0.18839478 -0.051492784 0.22534905 0.13508035 0.03505657 -0.12728104 -0.044872165 0.03423145 -0.10219352 -0.23473705 0.09828324 -0.09387999 -0.0010664724 -0.24461171 -0.060620088 0.21710722 0.0046495423 0.047905333 0.060431797 -0.15491939 -0.3061449 -0.2019388 -0.102193095 0.06703114 0.08167848 -0.0035935035 0.027645461 0.08336374 -0.075631164 0.0780076 0.198645 -0.15989333 0.07374018 -0.09583961 0.10891201 -0.08684153 0.22795348 0.16091643 -0.13737832 -0.034247257 -0.15368873 0.07974741 0.09095516 0.07806735 0.019163594 0.07057752 0.09349683 0.35151485 0.16231765 0.013902679 -0.21396856 -0.100594014 -0.2211034 0.15118074 -0.033808533 0.07119656 0.0018450379 -0.09321069 -0.047029603 -0.10653394 0.14126034 -0.1000385 -0.023347005 -0.15029848 -0.08376179 -0.15776882 0.08289843 0.040083174 0.020446848 0.06359556 0.10921929 0.15907149 0.23159744 -0.08377532 0.34156296 -0.22835173 -0.121934645 -0.115253866 -0.18040994 0.36089328 -0.24248147 0.15321282 -0.2210003 0.084379524 -0.13000487 0.08364078 -0.112898074 0.27255464 0.11615 0.3082814 -0.20142849 -0.06850113 0.0054027727 0.083175 -0.016229838 -0.025355633 -0.13084193 -0.08281679 -0.16030768 -0.0074279173 0.13299334 -0.05026053 -0.29972935 0.07845481 -0.10685744 0.13349557 0.026143648 -0.006381566 -0.08554474 0.070659384 -0.14966135 0.034798577 -0.020056056 -0.12609725 -0.012651921 -0.09069662 -0.13632962
26 0.036361177 -0.11518228 -0.21101335 -0.12437767 -0.072445646 -0.017374218 0.106040575 0.04223729 0.0006238875 0.08368607 -0.05366544 -0.04629043 -0.030420987 -0.08203265 0.0637464 0.05250011 -0.03157931 -0.11442595 0.23765981 0.1813232 -0.1573731 -0.06778393 -0.15146878 -0.113391645 -0.004469699 0.012418861 0.066912934 -0.021198953 0.031059831 0.1871848 -0.028008925 -0.13051632 -0.18473779 0.030044733 -0.03695351 -0.07139718 0.10654665 0.086535364 0.022644836 0.021467114 -0.061404858 0.14895223 -0.07415581 0.11713948 -0.10686008 0.20155142 0.14712161 0.06985939 0.049170636 -0.22823606 -0.06662791 -0.13989775 0.101512745 0.0032835933 -0.081145525 0.12759833 -0.19782017 0.119696505 0.08592658 0.015948534 -0.015460676 0.0021453928 -0.11309096 0.112837575 0.038885057 0.04751036 -0.04041852 0.06682867 -0.09822616 -0.12946053 -0.13139965 0.08778246 0.0049877814 -0.10973825 -0.1680459 0.026128452 -0.19840607 0.15563644 -0.019695478 0.08166608 0.17816445 -0.009198647 -0.0014826547 0.14180528 -0.16916184 0.15800673 -0.06345713 -0.025917454 0.03762162 -0.069955714 0.0686117 -0.117359966 0.09862733 -0.14499146 -0.043705482 0.07476562 -0.066221684 0.025588747 0.16174147 0.11773804 0.2576635 0.026089689 0.040944967 0.07465892 0.119727395 -0.032775402 0.12556759 -0.0862742 0.0073769754 -0.26235893 0.044367205 0.07717071 0.033485703 -0.13302623 0.015007289 -0.052778054 0.07127234 0.01998267 -0.019082341 0.13145213 0.025166504 -0.0022227 -0.033212468 -0.06481416 -0.20241822 -0.13219732 -0.07383124 0.03795977
25 0.03908106 -0.1068881 -0.2251506 -0.13065799 -0.091381215 -0.026211904 0.10101841 0.045648787 -0.0008582928 0.08281207 -0.04704384 -0.053550176 -0.030185115 -0.07740321 0.06477871 0.05123189 -0.04418552 -0.11364799 0.24440208 0.18213794 -0.17285244 -0.062325597 -0.15484399 -0.11856012 -0.020773316 0.00816327 0.07906135 -0.02658148 0.03257199 0.19299294 -0.03169386 -0.1526477 -0.20233193 0.028646855 -0.03426241 -0.06792101 0.10746284 0.08782226 0.026428549 0.01899681 -0.0584879 0.16275805 -0.07816023 0.11764561 -0.11692972 0.20565961 0.14485314 0.07971981 0.05476777 -0.23349456 -0.06528366 -0.14289588 0.10356078 0.013281162 -0.07734276 0.123047724 -0.20321512 0.12483272 0.10408416 0.02026425 -0.018550023 -0.0023374988 -0.115511425 0.10372551 0.047768664 0.0480677 -0.037496608 0.06707784 -0.10201057 -0.13869631 -0.13238142 0.09886288 4.2206506e-05 -0.1068655 -0.1756092 0.022027042 -0.2055198 0.15836088 -0.01975133 0.08384741 0.17725621 -0.0037079935 0.0068181357 0.15735263 -0.1674851 0.17650709 -0.0779618 -0.025301557 0.03719435 -0.08006748 0.07833954 -0.13260357 0.10251451 -0.15832177 -0.043841805 0.067873344 -0.060675535 0.022958856 0.17255898 0.12893032 0.26948273 0.014529968 0.033896882 0.07737873 0.124515854 -0.034238633 0.120980255 -0.08923052 0.00066162006 -0.272467 0.045288242 0.082843445 0.035386115 -0.14569733 0.019837413 -0.06511793 0.0748837 0.021536019 -0.018911473 0.13230518 0.02645372 -0.009405544 -0.027044026 -0.06692715 -0.21154606 -0.12904292 -0.07656871 0.027364524
31 0.026972258 -0.05830279 -0.22019503 -0.11526385 -0.16389881 -0.059045013 0.061884355 0.04180483 0.015456883 0.07583075 -0.014903103 -0.08507161 -0.043377817 0.008836733 0.09055941 0.04648338 -0.06662155 -0.09893671 0.18508734 0.10713938 -0.18670903 -0.017711347 -0.14343795 -0.08063704 -0.08278909 -0.009983823 0.124140956 -0.0048407423 0.035445098 0.15998521 -0.0569889 -0.18963465 -0.20124204 -0.0037651039 -0.009446982 -0.034095127 0.08206277 0.07930324 0.03791377 -0.0017385586 -0.027568165 0.17168453 -0.09254642 0.116075404 -0.11502774 0.185382 0.0944859 0.11605226 0.074090056 -0.20388101 -0.0589709 -0.14342065 0.100305155 0.019930882 -0.047750168 0.10470727 -0.13125718 0.12011003 0.17366026 0.059576556 -0.012033316 -0.06157056 -0.10580083 0.008497223 0.087512165 0.030536925 -0.009406747 0.03869744 -0.10525856 -0.11923847 -0.12880012 0.114643596 -0.01660435 -0.08881333 -0.16006935 -0.010379611 -0.19702134 0.13162255 0.0010883076 0.077985145 0.15217586 0.034842614 0.037989624 0.17036423 -0.15517208 0.21965744 -0.11088055 -0.053528596 -0.0070670433 -0.11349772 0.15757713 -0.16306359 0.11831524 -0.17220537 -0.018950172 0.024671063 -0.020539636 -0.020711977 0.19584322 0.12227279 0.28615025 -0.0451833 0.009214556 0.05554892 0.1144119 -0.031552967 0.09183484 -0.098059066 -0.014182086 -0.2363831 0.021596586 0.09235542 0.0128645925 -0.18794091 0.037417542 -0.07447147 0.09148373 0.027806465 -0.012544424 0.07692339 0.047544286 -0.04375103 -0.017687006 -0.052199725 -0.18579657 -0.10446684 -0.073681764 -0.01125547
29 0.030775463 -0.071929425 -0.21446633 -0.114730634 -0.1298629 -0.04479516 0.077701814 0.043101843 0.013095765 0.07698965 -0.025864687 -0.06841616 -0.036104932 -0.02560132 0.080807894 0.04838894 -0.053179055 -0.10469518 0.20049143 0.12579097 -0.1743953 -0.028820468 -0.14796622 -0.09300652 -0.05791079 -0.0023798035 0.10321241 -0.014759107 0.032306347 0.16497572 -0.04802253 -0.16818772 -0.19890971 0.0056394264 -0.015902322 -0.047696862 0.08523355 0.078365654 0.030478885 0.0037865231 -0.039081942 0.16476771 -0.09009827 0.11061754 -0.1069953 0.18734334 0.10516141 0.098010026 0.06314945 -0.20801206 -0.056005903 -0.14221956 0.0952513 0.021125374 -0.05530503 0.10894107 -0.15405157 0.11520665 0.14238608 0.04301013 -0.0115564875 -0.041219156 -0.111910924 0.043938793 0.070845634 0.035178844 -0.021214979 0.04947276 -0.099867046 -0.11487299 -0.123613365 0.10104156 -0.016435634 -0.09289979 -0.16085581 -0.0006482242 -0.19708033 0.13679521 -0.0032486017 0.074088216 0.15753837 0.02255503 0.025959222 0.15798876 -0.15679404 0.19889882 -0.097240835 -0.041941177 0.0064715417 -0.10136318 0.130365 -0.14825909 0.113913506 -0.1635949 -0.021500729 0.040639766 -0.035921466 -0.0063039786 0.18229842 0.120483786 0.27267417 -0.021408942 0.01545203 0.056466997 0.11507573 -0.031210246 0.095101394 -0.095396504 -0.006495879 -0.24245422 0.03298353 0.08694298 0.021168 -0.16887781 0.033866197 -0.06665451 0.08305501 0.024594983 -0.010127452 0.08914718 0.036591172 -0.028872216 -0.02175918 -0.050822575 -0.19406165 -0.112784125 -0.07749995 0.0002453128
20 0.01972047 -0.03614388 -0.19948228 -0.105571955 -0.16868919 -0.06629507 0.042871363 0.04261537 0.013233931 0.06441085 0.0044075847 -0.0875355 -0.040873006 0.028689666 0.0855553 0.045078956 -0.06692204 -0.08398549 0.14908986 0.074927464 -0.17884636 -0.0022173373 -0.123840995 -0.058286 -0.086886436 -0.015574145 0.12885873 0.0017429572 0.033652075 0.1362071 -0.06109311 -0.19155712 -0.1885821 -0.015505897 0.0021234006 -0.018819863 0.063227504 0.07071839 0.033842146 -0.012430319 -0.008252305 0.16117759 -0.085387796 0.09939505 -0.10027134 0.16436547 0.062383305 0.119104505 0.071086705 -0.17489827 -0.046603013 -0.1278864 0.086035185 0.021173356 -0.029463187 0.09196594 -0.10503076 0.1021629 0.17997289 0.065930724 -0.012693086 -0.07182339 -0.096155934 -0.016268026 0.08802309 0.022511894 -0.005125418 0.03145382 -0.09859181 -0.103020296 -0.11421714 0.101107575 -0.027944947 -0.07106102 -0.13815367 -0.01863854 -0.18144774 0.11802716 0.0047893627 0.062345415 0.12906043 0.050032087 0.04456453 0.1557204 -0.13130508 0.2082119 -0.10544908 -0.05454572 -0.018966276 -0.11129362 0.16447373 -0.15720586 0.11631668 -0.15922743 -0.008563905 0.00986323 -0.00417778 -0.034228437 0.1845844 0.11295771 0.2579892 -0.059411254 0.0005079878 0.036544256 0.09255186 -0.02877785 0.07222184 -0.08814032 -0.017752228 -0.20090154 0.013689638 0.09084832 0.0043174643 -0.17879125 0.037950523 -0.07766319 0.082650766 0.025134193 -0.010868142 0.0528359 0.048974212 -0.04854695 -0.011753567 -0.036512535 -0.16394956 -0.0832415 -0.06591263 -0.022910984
11 -0.018876435 0.10068639 -0.20136447 -0.08364389 -0.35761535 -0.16147558 -0.022423942 0.07337329 0.07223738 0.061039552 0.13372326 -0.19628675 -0.054587346 0.23485824 0.14593737 0.037576236 -0.13461381 -0.05036169 0.026447048 -0.10476223 -0.24315079 0.10610601 -0.09938949 0.0056602764 -0.25851136 -0.06416426 0.22865525 0.008975709 0.04583366 0.06341882 -0.16200948 -0.3197817 -0.21170306 -0.11087997 0.075344376 0.080594145 -0.0030884712 0.026513662 0.0801994 -0.07418414 0.0810639 0.20171323 -0.16246192 0.07098816 -0.10585174 0.11884082 -0.09040275 0.2362664 0.16205643 -0.13625522 -0.032681048 -0.15558206 0.09255904 0.08737406 0.08315088 0.023744902 0.07740296 0.092467025 0.3677757 0.16516277 0.014751044 -0.22751465 -0.10480789 -0.24244545 0.15804128 -0.031153178 0.07114338 0.0014594591 -0.10112204 -0.054362927 -0.110601485 0.1447205 -0.10207266 -0.021251468 -0.14678599 -0.0873101 -0.16582818 0.08592879 0.042889863 0.02135841 0.061527573 0.119636595 0.15980385 0.23826076 -0.093544 0.35440445 -0.23312859 -0.13430889 -0.12029418 -0.1813383 0.37292397 -0.24801321 0.1643351 -0.22281386 0.08262891 -0.13677625 0.08541292 -0.12683463 0.28248462 0.119326785 0.32430884 -0.21210323 -0.07671371 0.007373639 0.08200174 -0.015831497 -0.024480117 -0.12803711 -0.08539697 -0.16050354 -0.008015318 0.13285922 -0.045413572 -0.30576253 0.07755835 -0.109945394 0.13489403 0.030905306 -0.009530543 -0.089609176 0.07889776 -0.15144987 0.03611417 -0.024938876 -0.13134867 -0.010851557 -0.095223464 -0.13960762
5 -0.01854801 0.10189939 -0.18280402 -0.07563088 -0.33643243 -0.15542549 -0.022943022 0.06111816 0.06818434 0.05150576 0.13541904 -0.18327683 -0.051616795 0.22595195 0.13844068 0.029150542 -0.12667583 -0.04223737 0.0144872675 -0.10592989 -0.22087406 0.10421704 -0.08195946 0.012146864 -0.2454831 -0.058274798 0.21481924 0.012860278 0.040885273 0.050590873 -0.15386227 -0.30096596 -0.19227943 -0.10004196 0.07052337 0.07939142 -0.0056992937 0.019811852 0.07678497 -0.06886907 0.07879365 0.18237965 -0.15107356 0.06402246 -0.09091524 0.09838151 -0.09101753 0.22683738 0.15376191 -0.12311655 -0.036435373 -0.14259501 0.07718031 0.0771965 0.078939125 0.02055657 0.07765936 0.09230363 0.35327327 0.15411796 0.0138236005 -0.2172253 -0.09921825 -0.23870948 0.14808966 -0.03551624 0.066274315 -0.006599183 -0.09565972 -0.053104237 -0.097952165 0.13257582 -0.09358158 -0.017406316 -0.13210918 -0.07834201 -0.15193006 0.07954041 0.036729217 0.017499274 0.055663895 0.12234262 0.15406571 0.2156938 -0.07830835 0.33144847 -0.22341649 -0.11991581 -0.12132907 -0.17029387 0.3572427 -0.2302131 0.1509435 -0.21103165 0.07739281 -0.13283595 0.08769984 -0.11783634 0.26207155 0.11597658 0.30246478 -0.20726147 -0.07306217 0.00564756 0.071494915 -0.019337157 -0.02013461 -0.11812309 -0.07819366 -0.13823621 -0.008110117 0.12679291 -0.043291155 -0.29533324 0.07330269 -0.10460629 0.12509428 0.027870968 -0.0068150624 -0.08259561 0.074420735 -0.14330888 0.030801747 -0.02015709 -0.122537434 -0.0146156065 -0.08475571 -0.13518918
10 0.02859639 -0.05906436 -0.21788175 -0.11653521 -0.151501 -0.056905344 0.072286196 0.0475369 0.012988442 0.07220352 -0.014345911 -0.080158375 -0.034750964 -0.004447467 0.081693284 0.04563239 -0.06651229 -0.095874876 0.19187309 0.11370837 -0.18194287 -0.023053661 -0.13937858 -0.086109854 -0.07371799 -0.011156041 0.11395865 -0.009966862 0.03355325 0.1654931 -0.05793233 -0.18534812 -0.20321178 0.002191554 -0.0073076333 -0.04145975 0.083579935 0.07550967 0.03588707 -0.0053777704 -0.028554697 0.17382146 -0.0941815 0.112540774 -0.11524607 0.18343522 0.09641649 0.11203728 0.07232563 -0.21026419 -0.054531403 -0.14922152 0.0994306 0.025384385 -0.048662823 0.10822445 -0.14254649 0.11796154 0.16380535 0.05846391 -0.018567571 -0.052203007 -0.11118779 0.023340663 0.07520735 0.036231097 -0.011054491 0.0482935 -0.105814904 -0.11947674 -0.12955968 0.113965474 -0.016739465 -0.08598183 -0.15993759 -0.003303309 -0.19928376 0.1367005 -0.00056386844 0.07608642 0.15462892 0.035612 0.033179823 0.1727289 -0.15568987 0.21516049 -0.10566108 -0.050641794 0.00073002244 -0.11165885 0.1476974 -0.1629732 0.11943197 -0.16584727 -0.016424034 0.0278291 -0.024266109 -0.014799861 0.1897136 0.12568451 0.28406385 -0.035891432 0.00997042 0.057874635 0.11085595 -0.03100676 0.086197294 -0.098710895 -0.013970723 -0.24213386 0.026209915 0.09780503 0.012988095 -0.18210368 0.033085916 -0.07791383 0.084648676 0.019974273 -0.013414968 0.0841666 0.038425874 -0.041723102 -0.0144923255 -0.052092914 -0.18885772 -0.10340227 -0.0765259 -0.0036627895
18 -0.00095146237 0.01867653 -0.20843117 -0.10056929 -0.2551072 -0.10461098 0.016153893 0.053153604 0.040904205 0.06677444 0.059964195 -0.13504186 -0.046234738 0.11745138 0.115324885 0.041159805 -0.09558637 -0.07674232 0.10046989 0.0026062287 -0.20956987 0.04025288 -0.12399968 -0.039731834 -0.16414523 -0.03175677 0.17400758 0.0060680336 0.035497908 0.11311362 -0.10884803 -0.25364792 -0.20779932 -0.052740853 0.035495844 0.01865136 0.040023595 0.050580714 0.055631127 -0.033746675 0.028168287 0.17982458 -0.12257155 0.08738797 -0.11058087 0.14513278 0.0017796031 0.17540435 0.11175006 -0.16112763 -0.049508333 -0.14269249 0.09335141 0.047528062 0.015674718 0.063050024 -0.030924708 0.10836382 0.27075493 0.10607335 -0.0076763416 -0.14656772 -0.10404573 -0.11805774 0.12234593 0.0009173654 0.025100432 0.01591446 -0.10064993 -0.09222314 -0.11719008 0.12289147 -0.058602396 -0.053099774 -0.14138047 -0.042479966 -0.18663701 0.113440126 0.020491773 0.05424632 0.107622504 0.08596604 0.09412125 0.19269034 -0.12158697 0.27269366 -0.16155206 -0.09124465 -0.06097058 -0.13874951 0.2574031 -0.19963993 0.14111903 -0.18971907 0.03213792 -0.048680104 0.033454765 -0.07768924 0.23389548 0.12619185 0.30118895 -0.13280755 -0.03488326 0.027122898 0.09077447 -0.02740407 0.037820328 -0.10104425 -0.049758054 -0.18506919 0.0066757505 0.113671966 -0.01438036 -0.24353538 0.052721366 -0.09868649 0.11007335 0.020610306 -0.010868129 0.0006339433 0.06296428 -0.09326642 0.0014613137 -0.031767044 -0.15695783 -0.065143906 -0.08164966 -0.07097031
19 0.047483668 -0.13140245 -0.23152216 -0.13441503 -0.07415248 -0.01862758 0.11487485 0.040541444 -0.006396977 0.08779176 -0.06774757 -0.04030197 -0.03437011 -0.10171307 0.06460067 0.055031244 -0.035674073 -0.12411831 0.2651082 0.20914103 -0.17493168 -0.07296196 -0.17011653 -0.124909915 -0.0032053543 0.01781447 0.069778696 -0.020629222 0.03353978 0.20789438 -0.019815274 -0.13953279 -0.20531231 0.04225477 -0.04727922 -0.08653673 0.11727931 0.10264313 0.022276685 0.026854806 -0.076176025 0.1633713 -0.07390963 0.13531607 -0.1149285 0.22063416 0.17587148 0.06937519 0.046756413 -0.24374604 -0.07152987 -0.14724082 0.107785195 0.003910798 -0.0967054 0.14194842 -0.22625412 0.1293618 0.08529597 0.017770138 -0.024392411 0.011497877 -0.11559416 0.13639233 0.048676506 0.061182316 -0.044423 0.068482526 -0.10426795 -0.14041048 -0.13893662 0.10118518 0.012181948 -0.11720298 -0.18040171 0.030833296 -0.21724175 0.16360697 -0.019908119 0.09476102 0.19294539 -0.0075813746 -0.01412575 0.15500005 -0.1817229 0.1710914 -0.06223711 -0.022815464 0.04205215 -0.07938864 0.06566491 -0.12677379 0.10308066 -0.15180603 -0.05847497 0.088620335 -0.07940643 0.031929307 0.16405965 0.12970755 0.27241272 0.03373541 0.048711404 0.076689065 0.13578548 -0.032323472 0.13546738 -0.09323991 0.01041547 -0.28592074 0.043971553 0.07661328 0.0402411 -0.13150945 0.0207075 -0.05751133 0.074645765 0.0260264 -0.01632345 0.14920112 0.028666476 -0.0028712086 -0.03928448 -0.06591058 -0.21916568 -0.13584511 -0.076839924 0.04074079
27 0.02569006 -0.065864466 -0.22327293 -0.12392352 -0.14829703 -0.05437352 0.078119524 0.05174932 0.0114745805 0.074879326 -0.00939657 -0.088034846 -0.035409067 -0.004688929 0.08289105 0.049612064 -0.06373422 -0.10167313 0.19455379 0.123302914 -0.195855 -0.022188503 -0.14727525 -0.08318164 -0.072121434 -0.009399447 0.12169614 -0.015477465 0.03176623 0.17218752 -0.059172984 -0.19298902 -0.20976391 -0.0035835067 -0.006943424 -0.0428922 0.08742864 0.07863561 0.0371918 -0.0061419914 -0.028850133 0.17806913 -0.096799575 0.12042397 -0.113484256 0.18938528 0.10178856 0.1149982 0.07553039 -0.2173034 -0.059752975 -0.1468769 0.103409186 0.025113868 -0.047369476 0.10657241 -0.14689296 0.1167451 0.16332148 0.056561753 -0.017547373 -0.05146333 -0.11602736 0.029438624 0.075150825 0.036941785 -0.011095704 0.05217389 -0.10370538 -0.12060314 -0.13489036 0.11636028 -0.022099322 -0.09519383 -0.17129649 -0.00024102919 -0.20992866 0.14242557 -0.0029375597 0.073434144 0.16184156 0.026194863 0.033832062 0.17820774 -0.15495576 0.22139356 -0.10924618 -0.050331216 -0.001880194 -0.11308852 0.14776722 -0.1622453 0.11749271 -0.1703657 -0.021566605 0.031728107 -0.0306314 -0.019411363 0.1998868 0.13152261 0.2882856 -0.032747336 0.013229217 0.05577976 0.11457121 -0.026283374 0.08812041 -0.09811446 -0.013253159 -0.25283095 0.025752665 0.1006114 0.019938568 -0.18354 0.034682933 -0.07720537 0.08873529 0.02518912 -0.01599989 0.08097586 0.04044675 -0.046911713 -0.013173015 -0.055762053 -0.20156059 -0.105066895 -0.07757723 -0.0053816913
22 0.0018733594 0.017858732 -0.19989708 -0.09986624 -0.23578854 -0.09979936 0.01557106 0.044549797 0.032814287 0.060098737 0.04365603 -0.12188606 -0.046422057 0.10476782 0.1109535 0.04226625 -0.089022584 -0.07017023 0.09649781 0.0055197747 -0.19358082 0.0396242 -0.11512976 -0.03767149 -0.14774282 -0.03431736 0.1664805 0.007965201 0.037440713 0.10650448 -0.09390997 -0.23563056 -0.19285356 -0.042346057 0.0343594 0.012499113 0.041159127 0.052885145 0.052055236 -0.026969124 0.02150655 0.17014554 -0.11470052 0.09093455 -0.0972046 0.13849851 0.012621973 0.16557299 0.09745429 -0.1555494 -0.0469957 -0.1344924 0.08889546 0.04010649 0.004953082 0.068325065 -0.04223019 0.10156466 0.25156373 0.10134732 -0.007701723 -0.1296647 -0.10385918 -0.10302842 0.11717482 0.0018064752 0.016322408 0.016550066 -0.099657156 -0.0839963 -0.11588519 0.11500199 -0.046487983 -0.05494512 -0.13460125 -0.040941328 -0.18197133 0.10483532 0.015613362 0.054214507 0.10283223 0.081317335 0.079527944 0.17344625 -0.11971477 0.25304782 -0.14796406 -0.07716358 -0.057923887 -0.13526663 0.2361389 -0.18707746 0.13639753 -0.17949359 0.023103662 -0.03742212 0.028852934 -0.0676396 0.2144002 0.119317494 0.28000814 -0.121687174 -0.028400812 0.027090913 0.082848646 -0.028001517 0.03992553 -0.09254987 -0.04437943 -0.18034625 0.0049376297 0.10818629 -0.008385582 -0.2298671 0.055740457 -0.08916131 0.102364466 0.021402035 -0.008367658 0.008108901 0.06146557 -0.08156204 0.0053296895 -0.026650125 -0.15380208 -0.062077332 -0.07164805 -0.06107957
17 -0.010902337 0.06535437 -0.19246598 -0.085907735 -0.2993113 -0.1330923 6.104312e-05 0.06747955 0.063096 0.051868085 0.10906875 -0.16589211 -0.046383914 0.1811862 0.12465704 0.033469167 -0.11286375 -0.055839103 0.0542726 -0.06519516 -0.21881637 0.07507691 -0.09273044 -0.010479495 -0.21217339 -0.047766022 0.19202086 0.0037326808 0.041902635 0.07354598 -0.13189429 -0.27805346 -0.19114187 -0.08840224 0.05761934 0.06005045 0.009625898 0.03267333 0.07355486 -0.06208242 0.059272747 0.18898371 -0.14726372 0.076373376 -0.094517194 0.116415374 -0.0572405 0.2040649 0.13861205 -0.13726127 -0.031150455 -0.14462109 0.08227033 0.07852889 0.05747779 0.03048219 0.03951064 0.08954109 0.30606586 0.13899785 0.012054735 -0.17736399 -0.101888485 -0.17456706 0.13431855 -0.020018367 0.056274153 0.006195417 -0.09194533 -0.055691045 -0.10392107 0.12874016 -0.08361958 -0.034450132 -0.14386986 -0.06259817 -0.16022794 0.08970794 0.03329686 0.027323227 0.07376817 0.092371255 0.13152617 0.21406014 -0.0928261 0.3038606 -0.20046836 -0.11109221 -0.09463198 -0.16012307 0.3094638 -0.21727858 0.13993333 -0.20069256 0.06729031 -0.101934716 0.063685305 -0.098479554 0.245033 0.11259205 0.291572 -0.1608901 -0.050675012 0.01926328 0.08665097 -0.020080442 -0.00925121 -0.12128583 -0.06898318 -0.16153923 -0.001471388 0.11649289 -0.037450653 -0.26868945 0.06850445 -0.093176216 0.12188967 0.025357565 -0.009601323 -0.05732148 0.06537664 -0.12540087 0.028714664 -0.03000931 -0.12992892 -0.023142919 -0.08363895 -0.11158477
15 0.025258044 -0.053066224 -0.21307573 -0.113304034 -0.15883794 -0.05824703 0.06592475 0.045465656 0.018733462 0.07097178 -0.0064886063 -0.083964035 -0.04097428 0.0023186484 0.08402544 0.051445168 -0.064268224 -0.0975902 0.18191956 0.10574005 -0.18783769 -0.016733842 -0.13985132 -0.080121115 -0.082864486 -0.007693972 0.11911731 -0.010247721 0.030790621 0.15847827 -0.064292215 -0.18665968 -0.19688559 -0.002463028 -0.00749552 -0.03391138 0.081208535 0.075587586 0.03550774 -0.001219914 -0.019788202 0.17083192 -0.09575873 0.106784925 -0.11250092 0.17750587 0.08950377 0.11364363 0.07919976 -0.20282483 -0.05632528 -0.14050092 0.09503768 0.029714217 -0.04193236 0.099026285 -0.131785 0.11593266 0.16998774 0.060559973 -0.011914071 -0.06545012 -0.11068287 0.012228721 0.08204692 0.030382361 -0.010038134 0.044480253 -0.098609775 -0.10925401 -0.12487347 0.11101913 -0.020772148 -0.08708961 -0.15782918 -0.0038665293 -0.1955557 0.13367125 -0.004370147 0.073062025 0.14552474 0.034532405 0.042452816 0.17093939 -0.14861894 0.21896657 -0.11003496 -0.054296706 -0.0069916747 -0.11032306 0.15738294 -0.16045082 0.121792994 -0.16912654 -0.013878119 0.018828863 -0.020186486 -0.020172166 0.19372867 0.12443425 0.2801222 -0.046614833 0.0099392645 0.05471306 0.11185106 -0.030385515 0.08321262 -0.09339146 -0.016905779 -0.23235552 0.024525613 0.095364705 0.016513227 -0.18646476 0.034851786 -0.07379886 0.09119733 0.023536585 -0.010881318 0.07385779 0.041260723 -0.04506802 -0.014475463 -0.049424008 -0.18773651 -0.10059048 -0.07420741 -0.014737515
23 0.03380617 -0.09747287 -0.2145599 -0.12165674 -0.10181984 -0.033976283 0.093910284 0.045973476 0.007461562 0.07581457 -0.039922554 -0.06133434 -0.031591292 -0.062225606 0.06598979 0.049019005 -0.04627092 -0.10627668 0.22250594 0.16070586 -0.1732699 -0.049884867 -0.15338522 -0.10298426 -0.034697063 0.00671787 0.08950254 -0.020005245 0.029999351 0.1813508 -0.04079823 -0.14990914 -0.19273551 0.0193602 -0.026514813 -0.06110838 0.1029899 0.08721694 0.030456854 0.010208592 -0.05073939 0.16234304 -0.08073922 0.12044144 -0.108550005 0.19814026 0.13347599 0.08012251 0.060459293 -0.21861456 -0.061507165 -0.1402665 0.103432894 0.013981699 -0.07183048 0.12084304 -0.1846359 0.11559332 0.10625183 0.031774085 -0.016792722 -0.016109128 -0.10699429 0.08327351 0.05229182 0.046977792 -0.02711582 0.05899045 -0.098625556 -0.13013725 -0.12721442 0.10432109 -0.0045326455 -0.099474736 -0.16875887 0.016229155 -0.19748352 0.14270627 -0.012486452 0.08211236 0.17311388 0.009418303 0.0064500347 0.15487523 -0.16070296 0.1788469 -0.08148945 -0.03521883 0.027678397 -0.0931126 0.0969376 -0.13616878 0.100708336 -0.15461922 -0.037381664 0.05761401 -0.0563841 0.012118415 0.16756934 0.123140134 0.26433992 0.010255249 0.03201993 0.06699419 0.12145045 -0.028317899 0.11273259 -0.09018401 0.0031809027 -0.25752407 0.03568846 0.08149091 0.030497799 -0.1453482 0.025573546 -0.057615202 0.07658865 0.024626475 -0.010703418 0.11517333 0.027501123 -0.017538013 -0.025234675 -0.06255631 -0.19792259 -0.116234206 -0.07026742 0.02023952
21 0.03532343 -0.08499617 -0.22405197 -0.12161465 -0.12250623 -0.042092554 0.08971473 0.04110591 0.010871809 0.0774602 -0.037827715 -0.0678683 -0.038882375 -0.042583786 0.074024215 0.054584555 -0.058301434 -0.111874565 0.21800134 0.14924654 -0.18174915 -0.041594446 -0.15876791 -0.0984487 -0.055574756 0.0006967752 0.09955805 -0.017645223 0.031116197 0.18428944 -0.05172536 -0.1687564 -0.20896673 0.011379681 -0.025428798 -0.05836817 0.09913374 0.08837278 0.03553304 0.005215224 -0.04852951 0.17457925 -0.0932698 0.12300373 -0.116775945 0.20424506 0.124952815 0.10061808 0.068475805 -0.22381337 -0.059949797 -0.15014857 0.10312529 0.019163819 -0.06298388 0.121855624 -0.17820722 0.122873604 0.1353434 0.04320211 -0.020305041 -0.034026306 -0.11622983 0.06669402 0.06533911 0.044142406 -0.026875567 0.052149907 -0.10275878 -0.12738368 -0.13522044 0.10898531 -0.011668833 -0.10088384 -0.17694254 0.0077978782 -0.20829009 0.14798263 -0.0060095997 0.086171836 0.16889127 0.014741932 0.021768399 0.17347832 -0.16423985 0.2018544 -0.09287588 -0.04150008 0.016190158 -0.10639347 0.12474934 -0.1539265 0.11777833 -0.16347952 -0.030767877 0.053654797 -0.045557525 0.0015033495 0.18804428 0.13120778 0.28991508 -0.011764048 0.027439684 0.07068339 0.12899952 -0.02984372 0.107660085 -0.101259224 -0.006419167 -0.2627092 0.037688572 0.09253564 0.024998194 -0.17545807 0.029372152 -0.06835037 0.08395768 0.022865778 -0.012188826 0.103736006 0.04125965 -0.029499307 -0.02191644 -0.059293974 -0.20760591 -0.12217735 -0.07476795 0.0115574235
16 0.034723904 -0.08521719 -0.2251449 -0.1265085 -0.11906332 -0.039079178 0.08384502 0.04863587 0.011103422 0.080655456 -0.03639668 -0.06608896 -0.035479423 -0.04586939 0.077604726 0.055203296 -0.05431518 -0.106050834 0.21393116 0.15336105 -0.1861307 -0.04510762 -0.1532795 -0.09817079 -0.04771836 0.0017774759 0.101584524 -0.016958958 0.036337826 0.18262462 -0.045598067 -0.16916755 -0.20756076 0.014622055 -0.01918232 -0.05190893 0.099180974 0.08656154 0.036030944 0.009854845 -0.047830734 0.16776656 -0.091084376 0.124307245 -0.1099157 0.20336975 0.12862751 0.09844296 0.06736458 -0.22282635 -0.060755935 -0.14359425 0.10316829 0.014521564 -0.0633266 0.11865241 -0.17587644 0.12579647 0.13090187 0.04534859 -0.020159809 -0.029061493 -0.1123615 0.06876996 0.064827405 0.04349193 -0.026403293 0.054081574 -0.103785306 -0.12949865 -0.13049097 0.10911376 -0.006381394 -0.10051823 -0.17056367 0.011702713 -0.21014585 0.14928393 -0.01203145 0.08371823 0.16995817 0.013048857 0.017854797 0.16277024 -0.16801791 0.19647042 -0.08891487 -0.04056999 0.016104313 -0.099344574 0.11348546 -0.15039065 0.11522645 -0.16666329 -0.032910086 0.05674034 -0.046715073 0.003992604 0.18228987 0.12434878 0.2812291 -0.010349468 0.021571545 0.06452861 0.124412954 -0.031837586 0.11021629 -0.094345726 -0.0016371361 -0.258573 0.034491695 0.09198169 0.027986532 -0.16866364 0.03012504 -0.0689703 0.08100825 0.019911358 -0.016797522 0.11125278 0.037834253 -0.027655996 -0.025062595 -0.056673724 -0.20517935 -0.12046515 -0.07767318 0.013656019
13 -0.00014531701 0.035412364 -0.1934958 -0.09189112 -0.2676625 -0.11279859 0.0035414083 0.05600759 0.042302806 0.056898724 0.069528036 -0.14091127 -0.046459783 0.14081185 0.12168356 0.04305791 -0.095155165 -0.0663081 0.0774787 -0.02754953 -0.20395611 0.056607977 -0.10988435 -0.023314293 -0.17255005 -0.03664153 0.17735763 0.009050528 0.03876464 0.095967576 -0.110854015 -0.25645912 -0.19669953 -0.060803577 0.043670204 0.035559442 0.02975366 0.048216783 0.059388176 -0.037596703 0.04313699 0.17020087 -0.12283121 0.077791415 -0.09649646 0.1321835 -0.019564155 0.17841509 0.11473001 -0.14820555 -0.044062108 -0.13662827 0.08351593 0.05275886 0.023410367 0.054284513 -0.008701388 0.10083015 0.28039518 0.119472034 -0.00043738293 -0.15656768 -0.098426834 -0.14386405 0.12639071 -0.0075023784 0.03291836 0.012902467 -0.100538075 -0.07898606 -0.112639815 0.116731636 -0.0667538 -0.046478417 -0.12983462 -0.053084422 -0.16872472 0.094881885 0.026006352 0.04665321 0.09286699 0.090663545 0.0992215 0.18673305 -0.1122279 0.27973652 -0.16702744 -0.09319909 -0.073935725 -0.14073038 0.27393943 -0.20078276 0.14048545 -0.18580006 0.042420853 -0.06331598 0.040598184 -0.08875933 0.2282452 0.113699004 0.2877525 -0.14794615 -0.04312319 0.017674575 0.08573455 -0.025029924 0.025701901 -0.09822924 -0.049647216 -0.1694676 0.0040440755 0.117231645 -0.020320946 -0.25161895 0.057577305 -0.1002897 0.10556496 0.021620639 -0.010587909 -0.023719316 0.066836245 -0.097827196 0.010556129 -0.023561314 -0.14668088 -0.054054577 -0.07330879 -0.07951402
12 0.015057804 -0.008813623 -0.20988175 -0.10646689 -0.20949839 -0.08771893 0.040363986 0.053756803 0.030494262 0.07020704 0.033587776 -0.10995767 -0.039415248 0.063396476 0.1004978 0.046805046 -0.083008975 -0.08093843 0.14146802 0.04458269 -0.20185949 0.014121916 -0.12732951 -0.05304562 -0.124627545 -0.025467036 0.14757009 -0.004905384 0.03833029 0.1318494 -0.090852536 -0.22429198 -0.20442167 -0.03506574 0.016938876 -0.0030107906 0.059084564 0.059639145 0.048816506 -0.02232985 0.0054750796 0.17633833 -0.11581429 0.099897556 -0.10862881 0.16111471 0.044020876 0.15340066 0.10024462 -0.18343306 -0.05301393 -0.144178 0.09379684 0.04338472 -0.0058831265 0.08329524 -0.07526158 0.11152354 0.22730517 0.08468217 -0.012101545 -0.106891446 -0.11009166 -0.060043 0.10457225 0.016718766 0.0057255626 0.032883696 -0.10392126 -0.098828696 -0.121944234 0.120992586 -0.04041244 -0.07333949 -0.1573718 -0.031486824 -0.19366623 0.1263903 0.0067113163 0.062035136 0.12938604 0.057831537 0.07529213 0.18355992 -0.13489191 0.25232446 -0.14460446 -0.07476077 -0.040622395 -0.12994485 0.218884 -0.18766168 0.13257225 -0.18438096 0.010380155 -0.022365155 0.0060796547 -0.049996488 0.22367826 0.12493151 0.2929456 -0.095131636 -0.013612552 0.041836683 0.09933522 -0.025943955 0.059061408 -0.09918629 -0.03486002 -0.21138068 0.014714819 0.10440701 0.0016009684 -0.22548255 0.048753824 -0.08862887 0.09922393 0.024313424 -0.009950722 0.030303178 0.052633572 -0.06977851 -0.0027733825 -0.037674055 -0.1722993 -0.085304566 -0.078114115 -0.04223692
